tree
version=v4
num_class=1
num_tree_per_iteration=1
label_index=0
max_feature_idx=37
objective=binary sigmoid:1
feature_names=ACK_Flag_Cnt Active_Max Active_Min Active_Std Bwd_Header_Len Bwd_IAT_Max Bwd_IAT_Mean Bwd_IAT_Min Bwd_IAT_Std Bwd_IAT_Tot Bwd_Pkt_Len_Min CWE_Flag_Count Down_Up_Ratio FIN_Flag_Cnt Flow_Byts_s Flow_Duration Flow_IAT_Max Flow_IAT_Std Flow_Pkts_s Fwd_Header_Len Fwd_IAT_Mean Fwd_IAT_Std Fwd_PSH_Flags Fwd_Pkt_Len_Max Fwd_Pkt_Len_Mean Fwd_Pkt_Len_Min Fwd_Seg_Size_Min Idle_Max Idle_Std Init_Bwd_Win_Byts Init_Fwd_Win_Byts PSH_Flag_Cnt Pkt_Len_Max Pkt_Len_Mean Pkt_Len_Min Pkt_Len_Var RST_Flag_Cnt URG_Flag_Cnt
feature_infos=none [0.86239063739776611:0.98972773551940918] [0:0.99396061897277832] [0:0.91670632362365723] [0.49224922060966492:0.93749374151229858] [0:0.9995233416557312] [0:0.99967128038406372] [0:0.99967128038406372] [0:0.99958950281143188] [0:0.93039774894714355] [0.83592802286148071:0.83803379535675049] none [0.58078306913375854:0.99024903774261475] [0:1] [0.27833223342895508:0.93586492538452148] [0.068706870079040527:1] [0.098809882998466492:1] [0.31350207328796387:1] [0:0.94316744804382324] [0.39038902521133423:0.92129212617874146] [0.23875707387924194:1] [0:1] none [0.29517951607704163:0.44724473357200623] [0.33593359589576721:0.47224721312522888] [0.83808380365371704:0.86628663539886475] none [0:1] [0:0.99181944131851196] [0.99819982051849365:0.99897205829620361] [0.34053406119346619:0.95084506273269653] [0:1] [0.28222823143005371:0.99990075826644897] [0.30677735805511475:0.99541091918945312] [0.83858388662338257:0.86668664216995239] [0.2874370813369751:0.99981522560119629] [0:1] none
tree_sizes=1052 1097 1422 1098 1215 994 1317 1315 1316 1525 1420 1859 1211 1744 1635 1317 1737 1743 1210 2072 1315 1750 1312 2166 1738 2266 2602 1317 1413 1311 1210 2271 2385 1310 1530 1312 2811 1212 1520 1842 2588

Tree=0
num_leaves=9
num_cat=0
split_feature=33 5 24 21 19 5 27 21
split_gain=6592.76 44.379 41.916 27.3583 11.1667 5.93963 2.36371 0.449531
threshold=0.34931400418281561 0.42861786484718328 0.45221304893493658 0.47965893149375921 0.87146213650703441 0.5274241864681245 0.97881057858467113 0.39666055142879492
decision_type=2 2 2 2 2 2 2 2
left_child=4 3 5 7 6 -3 -1 -2
right_child=1 2 -4 -5 -6 -7 -8 -9
leaf_value=1.7817860262431044 1.7554502133872698 1.6633675245331632 1.5589419622690033 1.5902377150711666 1.6911319759519048 1.7574753925349336 1.7301020396571589 1.7315950472294444
leaf_weight=249.18104829266667 0.33062500879168399 4.3579124473035327 128.5838073939085 213.74994391947985 0.3792681097984304 0.44083334505558003 0.25867270678281684 0.8920537568628788
leaf_count=11305 15 103 1278 3205 3 20 7 31
internal_value=1.66376 1.5796 1.56244 1.59105 1.78131 1.67238 1.78167 1.73908
internal_weight=598.174 348.355 133.383 214.973 249.819 4.79875 249.44 1.22268
internal_count=15967 4652 1401 3251 11315 123 11312 46
is_linear=0
shrinkage=1


Tree=1
num_leaves=9
num_cat=0
split_feature=33 7 21 24 2 19 27 2
split_gain=5364.02 29.0384 24.664 22.3124 18.2857 15.9515 2.2116 0.69921
threshold=0.34931400418281561 0.54670467972755443 0.47965893149375921 0.45221304893493658 0.86481377482414257 0.87146213650703441 0.97881057858467113 0.86463391780853283
decision_type=2 2 2 2 2 2 2 2
left_child=5 2 7 -3 -4 6 -1 -2
right_child=1 3 4 -5 -6 -7 -8 -9
leaf_value=0.034906890367540501 -0.01395450247780544 -0.070250128901962805 -0.13946026530142477 -0.16064422519375895 -0.095834960063362326 -0.066415069217584374 -0.014684365371389433 0.015148100895804357
leaf_weight=243.71633734554052 0.32603460177779087 4.7189849391579619 219.28131805360317 144.95371598377824 19.053894547745585 0.52562904357910056 0.30629827082157035 0.75295304507017136
leaf_count=11335 10 113 2842 1258 365 4 9 34
internal_value=-0.07573 -0.144795 -0.135742 -0.158279 -0.136388 0.0342979 0.034785 0.00387196
internal_weight=633.635 389.087 239.414 149.673 238.335 244.548 244.023 1.07899
internal_count=15970 4622 3251 1371 3207 11348 11344 44
is_linear=0
shrinkage=0.03


Tree=2
num_leaves=12
num_cat=0
split_feature=33 7 24 19 2 21 21 21 3 21 21
split_gain=4465.57 21.1954 22.3782 15.5806 14.3258 19.8957 8.15682 2.58792 2.01437 1.71764 1.04547
threshold=0.34931400418281561 0.54670467972755443 0.45221304893493658 0.87146213650703441 0.86481377482414257 0.51457232236862194 0.47965893149375921 0.51314669847488414 0.90894323587417614 0.51365199685096752 0.39666055142879492
decision_type=2 2 2 2 2 2 2 2 2 2 2
left_child=3 4 -3 8 6 7 10 -6 -1 -9 -2
right_child=1 2 -4 -5 5 -7 -8 9 -10 -11 -12
leaf_value=0.034731019678245441 0.0086589349189163094 -0.055694733192417474 -0.14065743521763716 -0.064683439131473952 0.017588584850843414 -0.097959254415652813 -0.12309518835926531 -0.046381514503351193 -0.012057345481300953 -0.0019646635452695337 -0.031752899601003644
leaf_weight=237.48149357736111 0.32689016126096138 4.6243103966116896 162.79932929575443 0.5499076247215261 0.93274392373860182 17.314220163971186 239.79156028293073 0.88576387427747283 0.38086260855197807 1.4997706674039362 0.86902189068496227
leaf_count=11324 15 114 1280 4 37 280 2861 15 13 48 25
internal_value=-0.0699038 -0.127646 -0.138655 0.0341077 -0.1201 -0.0856318 -0.122685 -0.0135196 0.0346059 -0.0272854 -0.0217939
internal_weight=667.456 429.044 167.424 238.412 261.62 20.6325 240.987 3.31828 237.862 2.38553 1.19591
internal_count=16016 4675 1394 11341 3281 380 2901 100 11337 63 40
is_linear=0
shrinkage=0.03


Tree=3
num_leaves=9
num_cat=0
split_feature=33 19 7 24 21 2 2 27
split_gain=3842.78 15.2191 13.5593 11.6802 11.0107 9.0707 2.70043 2.18882
threshold=0.34931400418281561 0.87146213650703441 0.54670467972755443 0.45221304893493658 0.49246238172054296 0.86478653550148021 0.86472731828689586 0.97881057858467113
decision_type=2 2 2 2 2 2 2 2
left_child=1 7 4 -4 6 -6 -2 -1
right_child=2 -3 3 -5 5 -7 -8 -9
leaf_value=0.034562227580567401 -0.047620965000018875 -0.063002164110603623 -0.059072376382547309 -0.12557732869724994 -0.11296496943826169 -0.090017415307318674 0.011122573350322374 -0.014687647921929083
leaf_weight=232.80520491674542 2.9800070412456985 0.57396143674850364 5.0368405506014815 175.82683163136244 235.01017949916422 44.644884550943971 0.45510685071349133 0.30620820820331474
leaf_count=11384 66 4 114 1276 2522 669 20 9
internal_value=-0.0651876 0.0339283 -0.115076 -0.12406 -0.10892 -0.109635 -0.0390852 0.0344351
internal_weight=697.639 233.685 463.954 180.864 283.09 279.655 3.43511 233.111
internal_count=16064 11397 4667 1390 3277 3191 86 11393
is_linear=0
shrinkage=0.03


Tree=4
num_leaves=10
num_cat=0
split_feature=33 19 7 21 2 27 21 2 21
split_gain=3328.28 14.8655 12.5194 13.8295 5.60799 2.16657 0.650365 0.838255 0.0151502
threshold=0.34931400418281561 0.87146213650703441 0.54670467972755443 0.48418360948562628 0.86478090286254894 0.97881057858467113 0.39666055142879492 0.86472731828689586 0.47178706526756292
decision_type=2 2 2 2 2 2 2 2 2
left_child=1 5 3 6 -5 -1 -2 8 -8
right_child=2 -3 -4 4 -6 -7 7 -9 -10
leaf_value=0.034398965812769328 0.010115165211823519 -0.061372648576157506 -0.11279251535703837 -0.10250701364943794 -0.083985190273040536 -0.014548730371265551 -0.029972742375528331 0.0088289411820496027 -0.0054046127551832827
leaf_weight=226.76521896570921 0.40129675343632598 0.59771096706390281 193.77279256656766 247.70740730129182 51.766304053366184 0.30935885012149711 0.45702022314071633 0.33334258385002602 0.57203496247529984
leaf_count=11373 18 4 1389 2507 725 9 10 15 16
internal_value=-0.0610809 0.0337504 -0.104677 -0.0991011 -0.0995955 0.0342688 -0.00948758 -0.0170992 -0.0257101
internal_weight=722.682 227.672 495.01 301.237 299.474 227.075 1.76369 1.3624 1.02906
internal_count=16066 11386 4680 3291 3232 11382 59 41 26
is_linear=0
shrinkage=0.03


Tree=5
num_leaves=8
num_cat=0
split_feature=33 7 19 24 21 27 21
split_gain=2928.99 10.5125 10.0799 9.36857 5.96166 2.14479 1.00846
threshold=0.34931400418281561 0.54670467972755443 0.87146213650703441 0.45221304893493658 0.47965893149375921 0.97881057858467113 0.39666055142879492
decision_type=2 2 2 2 2 2 2
left_child=2 4 5 -3 6 -1 -2
right_child=1 3 -4 -5 -6 -7 -8
leaf_value=0.03424199238611076 0.01004887441083778 -0.051041550738843804 -0.04959732001631368 -0.10469102893766973 -0.09149002225372424 -0.014410577055779691 -0.026290433952555821
leaf_weight=221.21755782328546 0.39846530184149642 5.8534895647317162 0.46581168472766776 200.08215734362602 315.02199935168028 0.31249445676803489 1.0281889420002697
leaf_count=11381 18 118 3 1277 3236 9 30
internal_value=-0.0574685 -0.0962074 0.0337116 -0.10342 -0.0912026 0.0341089 -0.0161823
internal_weight=744.38 522.384 221.996 205.936 316.449 221.53 1.42665
internal_count=16072 4679 11393 1395 3284 11390 48
is_linear=0
shrinkage=0.03


Tree=6
num_leaves=11
num_cat=0
split_feature=33 19 7 24 2 21 21 21 27 21
split_gain=2587.74 14.2352 8.15808 7.98544 5.66408 14.7452 3.99343 2.34108 2.12343 1.47259
threshold=0.34931400418281561 0.87146213650703441 0.54670467972755443 0.45221304893493658 0.86481377482414257 0.51457232236862194 0.49246238172054296 0.51314669847488414 0.97881057858467113 0.51365199685096752
decision_type=2 2 2 2 2 2 2 2 2 2
left_child=1 8 4 -4 6 7 -2 -6 -1 -9
right_child=2 -3 3 -5 5 -7 -8 9 -10 -11
leaf_value=0.03409041163385957 -0.036832343101645695 -0.05853066142717131 -0.046909196613655446 -0.09656285047804955 0.019859189421658111 -0.072929753101794476 -0.086625716358923938 -0.036832086314205079 -0.014273202767929389 0.00085341752781763354
leaf_weight=215.26249059289694 3.5010831821709862 0.64008951187133689 5.8063468392938367 209.28506781160831 1.0878508891910343 21.730580041185021 301.45545004680753 1.0939235836267474 0.31561444699764152 1.6038458645343778
leaf_count=11362 76 4 115 1284 38 278 2821 16 9 43
internal_value=-0.0543073 0.033412 -0.0890698 -0.0954457 -0.0846446 -0.0637789 -0.0861763 -0.00698726 0.033954 -0.0202558
internal_weight=761.782 216.218 545.564 215.091 330.473 25.5162 304.957 3.78562 215.578 2.69777
internal_count=16046 11375 4671 1399 3272 375 2897 97 11371 59
is_linear=0
shrinkage=0.03


Tree=7
num_leaves=11
num_cat=0
split_feature=33 19 7 2 17 27 20 17 24 17
split_gain=2320.61 13.9069 8.00966 5.89227 3.05228 2.10248 2.01528 1.59917 1.56826 0.596326
threshold=0.34931400418281561 0.87146213650703441 0.56435641646385204 0.86478090286254894 0.39193485677242285 0.97881057858467113 0.27735957503318792 0.3830226361751557 0.45221304893493658 0.36317382752895361
decision_type=2 2 2 2 2 2 2 2 2 2
left_child=1 5 3 9 7 -1 -4 -5 -8 -2
right_child=2 -3 6 4 -6 -7 8 -9 -10 -11
leaf_value=0.033944168503766713 -0.030373216082252814 -0.057050389130125695 0.0043240136074834791 -0.028614230015078002 -0.068518406587587802 -0.014136623468547424 -0.047219841942647979 0.014153060520225259 -0.09179531386076592 -0.082220149564175851
leaf_weight=209.28954153880477 1.7182271946221579 0.66259729862213035 0.11111383885145087 0.89349721185862907 63.198661545291543 0.31871819496154685 4.0041609872132531 0.55522864498198032 158.612842425704 340.88280559517443
leaf_count=11335 34 4 3 14 751 9 73 18 887 2909
internal_value=-0.0518168 0.0332493 -0.083202 -0.0799101 -0.0674964 0.0338043 -0.0909019 -0.0131373 -0.090993 -0.0820493
internal_weight=780.247 210.271 569.977 407.248 64.6474 209.608 162.728 1.44873 162.617 342.601
internal_count=16037 11348 4689 3726 783 11344 963 32 960 2943
is_linear=0
shrinkage=0.03


Tree=8
num_leaves=11
num_cat=0
split_feature=33 19 7 2 21 27 21 21 19 19
split_gain=2100.69 13.5881 7.75925 5.20639 6.329 2.082 1.76083 0.930487 0.148864 39.8468
threshold=0.34931400418281561 0.87146213650703441 0.54670467972755443 0.86478844285011303 0.51344582438468944 0.97881057858467113 0.49246238172054296 0.51328191161155712 0.6250625252723695 0.85303533077240001
decision_type=2 2 2 2 2 2 2 2 2 2
left_child=1 5 3 6 7 -1 -2 -5 -4 -10
right_child=2 -3 8 4 -6 -7 -8 -9 9 -11
leaf_value=0.033803749711813783 -0.0372182218588097 -0.055622587024741196 -0.084664759496584377 -0.03457184835883962 -0.066327139973167831 -0.014000853617457627 -0.076701646579313706 0.00028354798606349359 0.028801106077975574 -0.097667301207375087
leaf_weight=204.17414316348732 3.8175526894628993 0.68454939126968284 224.22745115682483 7.8474203050136548 45.300096195191145 0.32180511951446433 299.14304341003299 0.72999019920825947 2.8337728865444642 5.5843505896627903
leaf_count=11348 73 4 1275 131 519 9 2535 16 92 33
internal_value=-0.049462 0.0330945 -0.0782047 -0.0742713 -0.0615249 0.0336608 -0.0763282 -0.0318856 -0.0838941 -0.0565568
internal_weight=794.664 205.18 589.484 356.838 53.8775 204.496 302.961 8.57741 232.646 8.41812
internal_count=16035 11361 4674 3274 666 11357 2608 147 1400 125
is_linear=0
shrinkage=0.03


Tree=9
num_leaves=13
num_cat=0
split_feature=33 19 7 2 21 21 24 19 21 16 3 20
split_gain=1899.81 13.2777 8.2168 6.01269 11.7069 5.09266 2.8191 30.5176 2.01577 2.61785 1.92903 1.79583
threshold=0.34931400418281561 0.87146213650703441 0.54670467972755443 0.86481377482414257 0.51457232236862194 0.39666055142879492 0.45221304893493658 0.85303533077240001 0.51314669847488414 0.2184645161032677 0.90894323587417614 0.26830056309700018
decision_type=2 2 2 2 2 2 2 2 2 2 2 2
left_child=1 10 3 5 8 -2 7 -4 -5 -10 -1 -7
right_child=2 -3 6 4 -6 11 -8 -9 9 -11 -12 -13
leaf_value=0.033669283949609795 0.010874316204359568 -0.054246532322698611 0.027992191418309584 0.020566444232026807 -0.059203611430819536 -0.01659461377409456 -0.079850146756967583 -0.091811536820492923 -0.029651270303130042 0.017664515075613261 -0.011761113357344397 -0.071384052171516846
leaf_weight=198.76942979544401 0.43349375016987224 0.7058948278427114 2.6303751356899729 1.14506599493325 23.742348797619343 1.2385081648826588 234.39999274909496 3.6319407746195793 2.1459974125027661 0.78785705566406239 0.39255441725253959 334.38104053586721
leaf_count=11337 18 4 87 39 281 20 1296 22 36 24 15 2838
internal_value=-0.0471167 0.0329429 -0.0735962 -0.0697359 -0.051435 -0.0710939 -0.0791202 -0.0445648 -0.00346231 -0.0156847 0.0335214 -0.0712318
internal_weight=804.404 199.868 604.537 363.874 27.8213 336.053 240.662 6.26232 4.07892 2.93385 199.162 335.62
internal_count=16017 11356 4661 3256 380 2876 1405 109 99 60 11352 2858
is_linear=0
shrinkage=0.03


Tree=10
num_leaves=12
num_cat=0
split_feature=33 19 7 2 21 24 19 21 27 16 21
split_gain=1740.47 12.9767 6.66312 4.53604 8.43733 3.91383 28.9465 3.88869 2.1276 1.93076 2.33713
threshold=0.34931400418281561 0.87146213650703441 0.54670467972755443 0.86481583118438732 0.51457232236862194 0.45221304893493658 0.85303533077240001 0.39666055142879492 0.97881057858467113 0.2184645161032677 0.51314669847488414
decision_type=2 2 2 2 2 2 2 2 2 2 2
left_child=1 8 3 7 9 6 -4 -2 -1 10 -5
right_child=2 -3 5 4 -6 -7 -8 -9 -10 -11 -12
leaf_value=0.033538054130076732 0.0094879228062791209 -0.052921260214646479 0.028222592846750546 0.015877489568848099 -0.055906359373948736 -0.075635494216361052 -0.085748544409988248 -0.067558228597773162 -0.014872308558882118 0.019450618074836973 -0.030213666764614983
leaf_weight=194.38618735224009 0.35912153869867225 0.7265886664390554 2.7706658802926531 0.71159570850432263 23.177459020167589 236.56137700751424 3.8275439478456974 347.12059714831412 0.29889347404241462 0.96053462661802758 2.1109907105565071
leaf_count=11382 15 4 93 25 268 1278 23 2873 8 30 34
internal_value=-0.0451091 0.0327994 -0.0697729 -0.0662845 -0.049368 -0.0748511 -0.0404749 -0.0674516 0.0333881 -0.00599713 -0.0174799
internal_weight=813.012 195.412 617.6 374.44 26.9606 243.16 6.59821 347.48 194.685 3.78312 2.82259
internal_count=16033 11394 4639 3245 357 1394 116 2888 11390 89 59
is_linear=0
shrinkage=0.03


Tree=11
num_leaves=16
num_cat=0
split_feature=33 19 7 2 24 12 21 27 20 21 20 20 20 21 21
split_gain=1581.77 12.6829 7.52933 4.14361 4.05447 29.4519 3.60172 2.04429 1.60652 1.42902 1.34446 1.24902 0.280764 0.277933 0.0225586
threshold=0.34931400418281561 0.87146213650703441 0.54670467972755443 0.86478090286254894 0.45221304893493658 0.58079293370246898 0.51054984331130993 0.97881057858467113 0.29905073344707495 0.47965893149375921 0.29177883267402654 0.2960639894008637 0.26830056309700018 0.51249703764915477 0.50895527005195629
decision_type=2 2 2 2 2 2 2 2 2 2 2 2 2 2 2
left_child=1 7 3 9 5 -4 8 -1 14 10 -2 -8 -11 -13 -5
right_child=2 -3 4 6 -6 -7 11 -9 -10 12 -12 13 -14 -15 -16
leaf_value=0.033410767823513696 -0.029575771825619292 -0.051645592169499092 -0.084411382604689722 -0.025912636338996684 -0.071928202818076492 0.028589367791604602 -0.0087145614733971366 -0.013859927621949862 0.015724271201008083 -0.022388232168184075 0.011575646061985372 -0.027648875521964263 -0.064715539417853366 -0.055514943406027507 -0.0043115855167449434
leaf_weight=188.3633935842663 0.8958168476819981 0.74659210443496604 3.8476968705654144 0.92508436366915636 242.2410890609026 2.9486138876527539 0.96462452784180541 0.32495850324630637 0.70852928049862374 1.4815466813743103 0.46925242058932781 3.3831879720091811 313.04698484390974 57.638472765684128 0.52602467685937881
leaf_count=11323 17 4 19 11 1284 100 16 9 26 21 19 48 2463 616 9
internal_value=-0.0432154 0.0326527 -0.0660773 -0.0625698 -0.0711582 -0.0380067 -0.052547 0.0332567 -0.0093676 -0.0644328 -0.0165165 -0.0538788 -0.0645877 -0.0544407 -0.0230359
internal_weight=818.512 189.435 629.077 380.04 249.037 6.79631 64.1459 188.688 2.15964 315.894 1.36507 61.9863 314.529 61.0217 1.45111
internal_count=15985 11336 4649 3246 1403 119 726 11332 46 2520 36 680 2484 664 20
is_linear=0
shrinkage=0.03


Tree=12
num_leaves=10
num_cat=0
split_feature=33 19 7 2 21 17 27 21 21
split_gain=1467.67 12.3984 7.45367 3.47677 5.52383 4.393 2.52695 1.33412 0.555337
threshold=0.34931400418281561 0.87146213650703441 0.54670467972755443 0.86478653550148021 0.51377558708190929 0.40048356354236608 0.97888487577438366 0.49669466912746435 0.51095327734947216
decision_type=2 2 2 2 2 2 2 2 2
left_child=1 6 3 7 5 8 -1 -2 -5
right_child=2 -3 -4 4 -6 -7 -8 -9 -10
leaf_value=0.033291127544835868 -0.037629259337569179 -0.050418187606627814 -0.068194507467819118 -0.011912241595763857 -0.056093199405631108 0.019619373599033839 -0.020626168016109336 -0.061953767388029539 -0.037893861194338505
leaf_weight=183.81937394291162 7.6277968771755686 0.76587200164794822 252.74277059175074 2.0123007800430068 45.316875066608191 0.79268971085548479 0.16518269293010135 323.18993462994695 13.671087229624389
leaf_count=11342 107 4 1391 42 454 21 2 2475 171
internal_value=-0.041906 0.0325156 -0.0632286 -0.0598667 -0.05024 -0.0318525 0.0331315 -0.061508 -0.0354741
internal_weight=830.104 184.75 645.353 392.611 61.793 16.4761 183.985 330.818 15.6834
internal_count=16009 11348 4661 3270 688 234 11344 2582 213
is_linear=0
shrinkage=0.03


Tree=13
num_leaves=15
num_cat=0
split_feature=33 19 7 2 21 21 24 20 20 27 21 21 17 17
split_gain=1348.9 12.1218 6.95068 3.0561 10.7858 3.8305 2.94808 26.6268 2.62763 2.50851 1.57513 1.82369 0.340675 0.224307
threshold=0.34931400418281561 0.87146213650703441 0.54670467972755443 0.86481377482414257 0.51457232236862194 0.39666055142879492 0.45221304893493658 0.92088419198989879 0.27735957503318792 0.97888487577438366 0.51314669847488414 0.51365199685096752 0.40020185708999639 0.37139116227626806
decision_type=2 2 2 2 2 2 2 2 2 2 2 2 2 2
left_child=1 9 3 5 10 -2 7 -4 -8 -1 -5 -12 -6 -7
right_child=2 -3 6 4 12 13 8 -9 -10 -11 11 -13 -14 -15
leaf_value=0.033173256491818383 0.010892175633843201 -0.049237590672071119 0.028709104656612413 0.020810456751514678 -0.015101171874567996 -0.03768202369146998 0.0086428026379306872 -0.076958336512980688 -0.065730050767689535 -0.020498129429081718 -0.02952370877868456 0.0072498956506972453 -0.051751904971020425 -0.058429589563820106
leaf_weight=179.06068430654705 0.43420461751520534 0.7844008207321157 2.8952228222042313 1.1581666376441742 1.246901068836453 7.4871875178068867 0.20905256271362205 4.3353420682251453 247.60753121227026 0.16744040697812934 1.258261136710644 1.9659899249672887 25.834196358919144 360.53574848733842
leaf_count=11345 18 4 96 39 18 92 5 21 1276 2 16 47 265 2793
internal_value=-0.0402155 0.0323812 -0.0601871 -0.0569975 -0.043831 -0.0580002 -0.0649463 -0.0363001 -0.0656328 0.0330097 -4.76911e-05 -0.0106928 -0.0506623 -0.0581108
internal_weight=834.98 180.013 654.968 399.921 31.4635 368.457 255.047 7.23056 247.817 179.228 4.38242 3.22425 27.0811 368.023
internal_count=16037 11351 4686 3288 385 2903 1398 117 1281 11347 102 63 283 2885
is_linear=0
shrinkage=0.03


Tree=14
num_leaves=14
num_cat=0
split_feature=33 1 7 36 2 21 20 24 21 17 21 20 20
split_gain=1246.47 11.2015 8.1252 4.27467 3.50193 3.8519 4.96525 3.31783 3.21383 1.48051 0.312556 9.29735 2.19907
threshold=0.34931400418281561 0.8641493320465089 0.54670467972755443 1.0000000180025095e-35 0.86478844285011303 0.51344582438468944 0.3031414151191712 0.45221304893493658 0.39666055142879492 0.39946644008159643 0.50595948100090038 0.27976898849010473 0.28502154350280767
decision_type=2 2 2 2 2 2 2 2 2 2 2 2 2
left_child=1 -1 4 -3 8 6 9 -4 -2 -6 12 -12 -10
right_child=2 3 7 -5 5 -7 -8 -9 10 -11 11 -13 -14
leaf_value=0.033058800435258759 0.010025838683580047 -0.055770733813476671 -0.03351583683260808 0.01430035299273625 -0.035239420248472549 -0.04835854200514212 0.021329036052518392 -0.063134735918929055 -0.051802738593664271 0.0034976504597583392 0.01417664817887406 -0.05773143810677149 -0.027711572572569829
leaf_weight=173.87882629223168 0.3863103985786428 0.97865975089371093 7.0844610799103966 0.75149552151560783 7.3197545260190946 50.209570035338402 1.212294379249214 250.36894750967622 66.568929269909859 0.80301913619041432 1.2708452753722657 266.32084570452571 7.5846871696412554
leaf_count=11314 16 7 116 48 87 510 41 1276 550 16 26 1931 96
internal_value=-0.0386318 0.0322519 -0.0575373 -0.0312452 -0.0542396 -0.0448613 -0.023192 -0.0624525 -0.0557363 -0.0314462 -0.0558396 -0.0573384 -0.0497401
internal_weight=834.739 175.609 659.13 1.73016 401.676 59.5446 9.33507 257.453 342.132 8.12277 341.745 267.592 74.1536
internal_count=16034 11369 4665 55 3273 654 144 1392 2619 103 2603 1957 646
is_linear=0
shrinkage=0.03


Tree=15
num_leaves=11
num_cat=0
split_feature=33 19 7 2 15 17 17 17 17 18
split_gain=1166 11.556 7.46154 3.22366 2.54238 1.5037 1.41336 0.964097 1.20384 0.0907798
threshold=0.34931400418281561 0.87146213650703441 0.56678166985511791 0.86478090286254894 0.96214506030082714 0.39193485677242285 0.3830226361751557 0.36780399084091192 0.36666838824748998 0.81775179505348217
decision_type=2 2 2 2 2 2 2 2 2 2
left_child=1 4 3 7 -1 6 -5 8 -2 -7
right_child=2 -3 -4 5 -6 9 -8 -9 -10 -11
leaf_value=0.032950222325319092 -0.034916000431342464 -0.046838173407179759 -0.061800754158977719 -0.023535283551891419 -0.021229956711696252 -0.04606371999273165 0.015385336559397032 -0.054690017607684237 0.0026038821265782375 -0.014468294383610905
leaf_weight=170.26384085044265 4.7917595226317635 0.82178694009780784 173.02787707932293 0.99268400110304245 0.15105223655700584 74.324720187112689 0.56740168295800686 414.85231193341315 0.73473531752824772 1.2148707918822754
leaf_count=11377 63 4 873 14 1 734 17 2947 14 16
internal_value=-0.0375997 0.0321268 -0.0554281 -0.053092 0.0327786 -0.0451291 -0.00889946 -0.0544419 -0.0302931 -0.0457513
internal_weight=841.743 171.237 670.506 497.478 170.415 77.0997 1.56009 420.379 5.52649 75.5396
internal_count=16060 11382 4678 3805 11378 781 31 3024 77 750
is_linear=0
shrinkage=0.03


Tree=16
num_leaves=15
num_cat=0
split_feature=33 1 7 4 2 21 24 12 21 16 21 20 20 17
split_gain=1078.58 10.8647 8.51912 3.90768 3.47304 10.1034 2.83807 25.6755 2.12834 1.65644 2.25071 1.56478 1.39492 0.0907647
threshold=0.34931400418281561 0.8641493320465089 0.54670467972755443 0.66041603684425365 0.86481377482414257 0.51457232236862194 0.45221304893493658 0.58079293370246898 0.47965893149375921 0.21701477468013766 0.51314669847488414 0.29177883267402654 0.26720848679542547 0.40020185708999639
decision_type=2 2 2 2 2 2 2 2 2 2 2 2 2 2
left_child=1 -1 4 -3 8 9 7 -4 11 10 -6 -2 -10 -7
right_child=2 3 6 -5 5 13 -8 -9 12 -11 -12 -13 -14 -15
leaf_value=0.032842032850004706 -0.02551720404267576 0.013949594746897755 -0.070595099913438292 -0.053166563692005224 0.01886141955683196 -0.01405885367836183 -0.058624982139392677 0.02959661337944039 -0.0068962193186670202 0.024037860635924255 -0.023398381117095999 0.01479949286917032 -0.051087925769233412 -0.044433684095029291
leaf_weight=164.93283704482019 0.99207423254847416 0.72518757544457813 4.7869638204574585 1.0216044494882224 0.94604431279003565 1.2498833127319837 253.06817850843072 3.088708432391285 0.98110796883702178 1.3753483630716798 1.8911370001733301 0.67275420017540455 376.34806726500392 26.657593540847301
leaf_count=11322 17 48 21 7 32 17 1274 99 15 40 27 26 2839 266
internal_value=-0.0361639 0.0320024 -0.0530925 -0.0303686 -0.0498699 -0.0372706 -0.05796 -0.0323941 -0.0508368 0.00501782 -0.00806393 -0.00978534 -0.0509916 -0.0436067
internal_weight=838.737 166.68 672.058 1.74679 411.114 32.12 260.944 7.87567 378.994 4.21253 2.83718 1.66483 377.329 27.9075
internal_count=16050 11377 4673 55 3279 382 1394 120 2897 99 59 43 2854 283
is_linear=0
shrinkage=0.03


Tree=17
num_leaves=15
num_cat=0
split_feature=33 19 7 2 21 21 15 24 20 20 21 21 17 20
split_gain=1011.83 11.0234 8.77154 4.37514 7.36143 2.89317 2.49223 2.31305 22.0321 2.34907 1.1667 2.40251 1.12565 0.654648
threshold=0.34931400418281561 0.87146213650703441 0.54670467972755443 0.86481779813766491 0.51457232236862194 0.39666055142879492 0.96214506030082714 0.45221304893493658 0.92088419198989879 0.27735957503318792 0.51352065801620495 0.51365199685096752 0.4003655761480332 0.30438043177127844
decision_type=2 2 2 2 2 2 2 2 2 2 2 2 2 2
left_child=1 6 3 5 10 -2 -1 8 -4 -9 -5 -12 -6 -14
right_child=2 -3 7 4 12 -7 -8 9 -10 -11 11 -13 13 -15
leaf_value=0.032741257087354876 0.010500243488312537 -0.044632378158731688 0.028698912449912892 0.02150793829462843 -0.0045227111693159142 -0.049153673328966134 -0.020801812622577884 0.0094958083185060632 -0.066545003959330815 -0.056869056698447044 -0.032699566796214261 0.013583490353881679 -0.007080674953738055 -0.041834287293092805
leaf_weight=161.34398284461349 0.41154352761804958 0.85543942451476951 2.8200417775660744 1.2250152900815039 1.0703420825302625 386.91968880593777 0.15815584361553092 0.21482620015740295 4.6814703959971666 255.65292362868786 0.73988111317157779 1.5069069489836691 0.95980258285999553 22.88902298361063
leaf_count=11374 17 4 92 41 17 2917 1 5 21 1273 5 37 14 228
internal_value=-0.0352479 0.0318837 -0.051321 -0.0481147 -0.0339426 -0.0490634 0.0325611 -0.056181 -0.0315758 -0.0567766 0.00559387 -0.00703489 -0.0394542 -0.0407769
internal_weight=841.449 162.358 679.091 415.722 28.391 387.331 161.502 263.369 7.50151 255.868 3.4718 2.24679 24.9192 23.8488
internal_count=16046 11379 4667 3276 342 2934 11375 1391 113 1278 83 42 259 242
is_linear=0
shrinkage=0.03


Tree=18
num_leaves=10
num_cat=0
split_feature=33 19 21 19 12 19 1 21 16
split_gain=942.984 10.8302 8.49801 19.8191 7.15423 29.2004 6.70459 3.7977 0.866566
threshold=0.34931400418281561 0.87146213650703441 0.39666055142879492 0.6250625252723695 0.58079293370246898 0.6250625252723695 0.86400845646858226 0.51569432020187389 0.2115111127495766
decision_type=2 2 2 2 2 2 2 2 2
left_child=1 -1 3 -2 -4 6 8 -8 -6
right_child=2 -3 4 -5 5 -7 7 -9 -10
leaf_value=0.032640777102870826 -0.05561101592312799 -0.043674034338033955 -0.067620683984491115 0.02632724964360772 -0.047627002970311166 0.036622811283972323 0.010900651421345529 -0.029475958268028252 -0.037190108373198104
leaf_weight=156.48400432337075 225.37712338753045 0.86970722675323386 17.467771574854851 2.1439873576164237 388.82436222024262 3.1661395654082289 1.9387294016778458 12.836095318198202 28.466410089284182
leaf_count=11333 1109 4 72 71 2861 82 42 143 290
internal_value=-0.0340836 0.0319458 -0.0493824 -0.0547271 -0.0465816 -0.0455841 -0.0462697 -0.0238226 -0.0470056
internal_weight=837.574 157.354 680.221 227.521 452.7 435.232 432.066 14.7748 417.291
internal_count=16007 11337 4670 1180 3490 3418 3336 185 3151
is_linear=0
shrinkage=0.03


Tree=19
num_leaves=18
num_cat=0
split_feature=33 19 7 21 2 15 21 17 24 12 20 16 20 21 2 20 21
split_gain=881.086 10.5544 8.48316 5.02905 4.13892 2.48494 2.37025 4.63295 2.31383 21.2533 2.19507 1.45518 1.14147 8.44255 0.467311 0.181639 0.031456
threshold=0.34931400418281561 0.87146213650703441 0.54670467972755443 0.48418360948562628 0.86478090286254894 0.96214506030082714 0.51377558708190929 0.40048356354236608 0.45221304893493658 0.58079293370246898 0.27735957503318792 0.16344134509563449 0.27619011700153356 0.50393635034561168 0.86462208628654491 0.3031414151191712 0.50929784774780285
decision_type=2 2 2 2 2 2 2 2 2 2 2 2 2 2 2 2 2
left_child=1 5 3 11 12 -1 7 -6 9 -4 -10 14 13 -5 -2 -8 -14
right_child=2 -3 8 4 6 -7 15 -9 10 -11 -12 -13 16 -15 -16 -17 -18
leaf_value=0.032544277441231582 0.0014558289098210314 -0.042752265039428819 -0.062658238625192361 -0.040847188944917061 -0.028852334588258838 -0.020870580724018362 -0.046642702359323614 0.02331415612931103 0.0096914363656226288 0.028684958858553621 -0.053186333762027853 0.018871776242571119 -0.044591329735302984 0.016550179362567041 -0.025961849454927702 -0.034600957820582638 -0.049816778574182936
leaf_weight=152.42370126303285 0.72873425483703547 0.88315820693969627 5.0377175956964493 18.187257360666994 20.00404306687415 0.15702153742313285 20.874911982566118 0.92378850840032001 0.21571526303887267 2.9462462700903407 253.61969041824341 0.98425339348614205 181.53090482577682 2.075673706829547 0.51337721943855286 27.158781014382839 147.77727115154266
leaf_count=11342 15 4 21 143 226 1 162 23 5 99 1268 36 1355 39 6 292 973
internal_value=-0.0331478 0.0316476 -0.0477407 -0.0446674 -0.044906 0.0323538 -0.0365314 -0.0255914 -0.0524909 -0.0295098 -0.0530951 0.000208611 -0.0464492 -0.0344657 -0.0164012 -0.0406787 -0.04708
internal_weight=836.042 153.464 682.578 420.759 418.533 152.581 68.9615 20.9278 261.819 7.98396 253.835 2.22636 349.571 20.2629 1.24211 48.0337 329.308
internal_count=16010 11347 4663 3270 3213 11343 703 249 1393 120 1273 57 2510 182 21 454 2328
is_linear=0
shrinkage=0.03


Tree=20
num_leaves=11
num_cat=0
split_feature=33 21 19 1 14 19 1 36 21 21
split_gain=832.465 9.31962 18.5111 7.5632 6.46455 26.7309 5.24381 2.89554 2.39828 1.90091
threshold=0.34931400418281561 0.45600546896457678 0.6250625252723695 0.8641493320465089 0.28455731272697454 0.6250625252723695 0.86400845646858226 1.0000000180025095e-35 0.51569432020187389 0.49489374458789831
decision_type=2 2 2 2 2 2 2 2 2 2
left_child=3 2 -2 -1 -3 6 9 -5 -8 -6
right_child=1 4 -4 7 5 -7 8 -9 -10 -11
leaf_value=0.032448872127467367 -0.052553620078145839 -0.063194072289021186 0.026099153665711763 -0.04443929473438079 -0.018468008937316632 0.036335008424151077 0.0044077332855347205 0.013578274736937519 -0.027780150584776571 -0.044040661686350575
leaf_weight=147.6641438016668 229.00772165320814 17.739160031080246 2.1664014793932429 0.85945132374763378 4.6180689446628085 3.1324973441660395 2.1553137302398673 0.70437695737928152 12.907751291990278 414.99233186617494
leaf_count=11293 1129 72 74 6 64 82 42 51 141 3068
internal_value=-0.0323455 -0.046292 -0.0517073 0.0317151 -0.0434367 -0.042494 -0.0431442 -0.0232037 -0.0231868 -0.0438038
internal_weight=835.947 686.719 231.174 149.228 455.545 437.806 434.673 1.56383 15.0631 419.61
internal_count=16022 4672 1203 11350 3469 3397 3315 57 183 3132
is_linear=0
shrinkage=0.03


Tree=21
num_leaves=15
num_cat=0
split_feature=33 1 7 36 2 17 17 24 12 20 20 17 17 20
split_gain=785.669 10.1705 9.17663 3.25949 2.96732 5.32669 2.72642 2.30841 18.1668 2.21424 2.09084 1.69465 5.01441 0.0364431
threshold=0.34931400418281561 0.8641493320465089 0.54670467972755443 1.0000000180025095e-35 0.86481377482414257 0.39651566743850714 0.34006910026073461 0.45221304893493658 0.58079293370246898 0.26720848679542547 0.27735957503318792 0.40990349650383001 0.40655782818794256 0.27866676449775701
decision_type=2 2 2 2 2 2 2 2 2 2 2 2 2 2
left_child=1 -1 4 -3 6 -6 -2 8 -4 -8 -9 12 -7 -12
right_child=2 3 7 -5 5 11 9 10 -10 -11 13 -13 -14 -15
leaf_value=0.032358729515026281 0.012254657846302804 -0.048651676697907466 -0.057930556095276781 0.013165438355626958 0.020770385351330179 -0.031630322566775559 0.0037333420579966012 0.0098691309889114374 0.027921728037101655 -0.042977411338467324 -0.0065395574975599183 -0.053209431750396115 0.017216406432189479 -0.050554131670614483
leaf_weight=144.01608135551214 0.41315408796071906 1.0864451732486475 4.9021897315979004 0.66983570251613844 1.0834851246327151 26.808565022423867 0.76167842745780845 0.21638607233762641 2.7901816908270112 392.36913160420954 0.3362964391708364 4.0656496733427039 1.4179938510060299 256.26657816022635
leaf_count=11318 13 6 20 49 35 295 14 5 97 2877 3 20 29 1272
internal_value=-0.0317012 0.0314297 -0.045037 -0.0288523 -0.0419385 -0.0309588 -0.0427889 -0.0498611 -0.0271604 -0.0428777 -0.0504331 -0.0332662 -0.0286713 -0.0505221
internal_weight=837.204 145.772 691.431 1.75628 426.92 33.3757 393.544 264.512 7.69237 393.131 256.819 32.2922 28.2266 256.603
internal_count=16053 11373 4680 55 3283 379 2904 1397 117 2891 1280 344 324 1275
is_linear=0
shrinkage=0.03


Tree=22
num_leaves=11
num_cat=0
split_feature=33 21 19 1 12 19 1 4 21 16
split_gain=735.32 9.04427 16.1014 7.48523 5.58861 25.0734 5.76122 2.53247 2.03642 1.4119
threshold=0.34931400418281561 0.39666055142879492 0.6250625252723695 0.8641493320465089 0.58079293370246898 0.6250625252723695 0.86400845646858226 0.66041603684425365 0.51569432020187389 0.20257025212049487
decision_type=2 2 2 2 2 2 2 2 2 2
left_child=3 2 -2 -1 -3 6 9 -5 -8 -6
right_child=1 4 -4 7 5 -7 8 -9 -10 -11
leaf_value=0.032270542434302989 -0.049614561905725746 -0.059295204172570858 0.02532854723173467 0.012745387804978739 -0.042027420562016492 0.036309200213355319 0.0049240892661379957 -0.042510640128792299 -0.024391103810416762 -0.034047398330136251
leaf_weight=139.92673011124134 223.17292580194771 17.388568431138992 2.0434871874749652 0.63593038544058689 373.58234499581158 3.1356064844876519 2.1641999986022702 0.88794328551739454 12.8680920638144 52.041112519800663
leaf_count=11301 1105 70 72 47 2674 83 42 6 142 486
internal_value=-0.0306067 -0.0434344 -0.0488256 0.0315083 -0.0407017 -0.0398415 -0.0404644 -0.0235381 -0.0201267 -0.0411338
internal_weight=827.847 686.396 225.216 141.451 461.18 443.791 440.656 1.52387 15.0323 425.623
internal_count=16028 4674 1177 11354 3497 3427 3344 53 184 3160
is_linear=0
shrinkage=0.03


Tree=23
num_leaves=19
num_cat=0
split_feature=33 1 7 2 20 4 17 17 15 14 16 20 20 15 24 20 20 14
split_gain=691.718 9.67058 9.07009 3.39304 3.42102 3.02783 1.62956 1.32584 2.49665 0.949699 0.895038 0.581664 1.75675 0.476924 0.32468 9.759 1.17776 0.324674
threshold=0.34931400418281561 0.8641493320465089 0.56435641646385204 0.86478844285011303 0.29687473177909857 0.66041603684425365 0.36317382752895361 0.39615502953529363 0.226518489420414 0.8761386275291444 0.21249124407768252 0.27461890876293188 0.27332927286624914 0.22225254774093631 0.45221304893493658 0.92088419198989879 0.27735957503318792 0.89669579267501842
decision_type=2 2 2 2 2 2 2 2 2 2 2 2 2 2 2 2 2 2
left_child=1 -1 3 6 13 -3 9 8 -6 -2 -9 12 -8 -5 15 -4 -16 -11
right_child=2 5 14 4 7 -7 11 10 -10 17 -12 -13 -14 -15 16 -17 -18 -19
leaf_value=0.032185366208255101 -0.0215824582033937 0.013133314697754575 0.023351533015193215 -0.0051241656429093637 -0.023880181473253683 -0.045935832670876947 -0.033469666163732849 -0.041434965730324749 0.019226860807469909 0.016281006035256059 -0.030024415651336792 -0.041468309970798485 -0.0034090712081144268 0.018016907371931755 0.0063726972645913272 -0.051195378643938902 -0.048912964701375003 -0.005145511310522979
leaf_weight=136.15994437783957 0.93827908113598713 0.66942195594310661 1.6588001493364561 0.92246351018547901 2.8173742908984418 1.1340418951585887 9.8810789920389634 21.786930207163095 0.90033639036118973 0.53625225089490414 43.982309728860855 410.58495028875768 2.3752860873937598 0.61950783431529999 0.12987666577100654 3.7513252720236778 181.09594995900989 0.45863271504640579
leaf_count=11302 9 50 60 12 29 7 82 165 29 15 449 2845 31 16 3 16 875 7
internal_value=-0.0298759 0.03122 -0.0422548 -0.0398503 -0.0323486 -0.0271464 -0.0410258 -0.0333305 -0.0115781 -0.00829361 -0.0343683 -0.0411556 -0.0283405 0.00760335 -0.0483959 -0.0282614 -0.0488386 0.0087756
internal_weight=820.403 137.963 682.439 495.803 71.0289 1.80346 424.774 69.487 3.71771 1.93316 65.7692 422.841 12.2564 1.54197 186.636 5.41013 181.226 0.994885
internal_count=16002 11359 4643 3689 700 57 2989 672 58 31 614 2958 113 28 954 76 878 22
is_linear=0
shrinkage=0.03


Tree=24
num_leaves=15
num_cat=0
split_feature=33 7 1 21 33 12 19 16 24 12 20 20 21 20
split_gain=656.204 10.0502 7.07973 3.04889 2.47916 2.38917 18.439 5.25061 2.01493 14.9887 1.935 1.52344 0.6502 0.0524505
threshold=0.34931400418281561 0.54670467972755443 0.8641493320465089 0.48418360948562628 0.33016417920589453 0.58079293370246898 0.6250625252723695 0.2115111127495766 0.45221304893493658 0.58079293370246898 0.27735957503318792 0.29177883267402654 0.47178706526756292 0.27866676449775701
decision_type=2 2 2 2 2 2 2 2 2 2 2 2 2 2
left_child=2 3 -1 11 -4 -5 7 -7 9 -3 -10 12 -2 -12
right_child=1 8 4 5 -6 6 -8 -9 10 -11 13 -13 -14 -15
leaf_value=0.032103058215916518 -0.026983002516374116 -0.052569907114829922 0.013061175818524723 -0.054718275970019679 -0.040706754886269673 -0.039199281635699225 0.035453506269369689 -0.026364423534393982 0.010104988434309283 0.027104155864641124 -0.0058237997703432286 0.017781811836955916 0.0028250293990787268 -0.046675913871403213
leaf_weight=132.77230823226273 0.90816204622387819 4.7341074496507645 0.66411234810948261 11.466143071651457 0.91371470130980015 366.7849828992039 2.3642185963690272 40.663295939564705 0.21694406494498153 2.594482507556676 0.33386927843093772 0.8962963931262492 0.74251795932650566 251.3852052539587
leaf_count=11328 11 19 50 46 6 2663 57 440 5 93 3 33 14 1272
internal_value=-0.0291194 -0.0410338 0.0313139 -0.0378768 -0.0217881 -0.0380748 -0.0374771 -0.037986 -0.0460293 -0.0244959 -0.0465564 -0.00362159 -0.0175673 -0.046645
internal_weight=817.44 683.09 134.35 423.826 1.57783 421.279 409.812 407.448 259.265 7.32859 251.936 2.54698 1.65068 251.719
internal_count=16040 4656 11384 3264 56 3206 3160 3103 1392 112 1280 58 25 1275
is_linear=0
shrinkage=0.03


Tree=25
num_leaves=20
num_cat=0
split_feature=33 7 1 2 20 4 17 17 20 17 20 17 17 16 16 16 24 16 20
split_gain=614.729 10.1557 9.24986 4.4646 3.50372 2.86405 1.42455 1.38511 1.09224 0.988898 0.861583 12.3896 1.33369 1.22283 0.758608 0.55133 0.337573 0.192974 0.00380641
threshold=0.34931400418281561 0.56435641646385204 0.8641493320465089 0.86477386951446544 0.29567539691925054 0.66041603684425365 0.39230182766914373 0.3830226361751557 0.27735957503318792 0.40990349650383001 0.27619011700153356 0.3860673606395722 0.36383703351020819 0.15889064222574237 0.15889064222574237 0.14486448466777804 0.45221304893493658 0.15386538952589038 0.29551705718040472
decision_type=2 2 2 2 2 2 2 2 2 2 2 2 2 2 2 2 2 2 2
left_child=2 3 -1 10 18 -4 7 -6 -3 -8 11 15 14 -14 -12 -2 -10 -13 -5
right_child=1 8 5 4 6 -7 9 -9 16 -11 12 17 13 -15 -16 -17 -18 -19 -20
leaf_value=0.032021926302425625 -0.040486054458350587 0.0063169473846234536 0.013117302139171833 0.01595992622754425 -0.018073848806558306 -0.043968036641715558 -0.02955311059385797 0.018782075621755673 -0.026320468323709805 -0.047940521238678126 -0.020250517045138246 0.0048008457010735878 -0.044802704038206104 -0.038059199181174619 0.0065139611925900823 -0.019657175650741945 -0.046707473170913595 0.033726116895175455 0.0028405277615919182
leaf_weight=128.5814864654094 14.232049062848096 0.12969202175736327 0.67006787098944087 0.5343867540359486 1.0716283190995444 1.1627616118639705 74.543690549209714 0.65694252587854851 5.054952595382928 4.9197690226137629 1.3875477090477937 0.63701126351952497 70.106804173439741 320.22764757834375 0.95555564016103733 4.593907617032527 182.57518857717514 1.5355862341821191 0.55449395626783371
leaf_count=11276 96 3 51 14 14 7 721 18 72 24 15 10 412 2273 23 44 892 36 8
internal_value=-0.0284916 -0.0398715 0.0310184 -0.0373756 -0.029944 -0.0258348 -0.0306924 -0.00231677 -0.0462311 -0.0312732 -0.038778 -0.028787 -0.0392378 -0.0393818 -0.010652 -0.0366512 -0.0463007 0.0294316 0.0138372
internal_weight=814.131 683.717 130.414 495.957 82.2809 1.83283 81.192 1.72857 187.76 79.4635 413.676 20.9986 392.678 390.334 2.3431 18.826 187.63 2.1726 1.08888
internal_count=16009 4675 11334 3708 799 58 777 32 967 745 2909 186 2723 2685 38 140 964 46 22
is_linear=0
shrinkage=0.03


Tree=26
num_leaves=23
num_cat=0
split_feature=33 7 2 2 24 12 15 21 16 17 21 20 16 20 16 20 17 16 17 20 20 14
split_gain=586.757 9.60506 7.57678 3.01343 2.4893 14.8222 2.29438 2.10804 3.60304 2.4115 1.91144 9.0745 2.21647 1.826 1.74613 1.23441 0.780257 0.375491 0.295951 0.0602651 0.0435789 0.328201
threshold=0.34931400418281561 0.54670467972755443 0.86506131291389476 0.86478090286254894 0.45221304893493658 0.58079293370246898 0.96214506030082714 0.51249703764915477 0.19609460979700091 0.39708703756332403 0.50929784774780285 0.29145830869674688 0.16036603599786761 0.27735957503318792 0.18320164829492572 0.28575357794761663 0.39615502953529363 0.20780828595161441 0.39193485677242285 0.27866676449775701 0.32851473987102514 0.81274431943893444
decision_type=2 2 2 2 2 2 2 2 2 2 2 2 2 2 2 2 2 2 2 2 2 2
left_child=2 3 6 10 5 -3 -1 8 18 -10 11 12 -2 -6 -13 -12 -9 -18 -5 -15 -4 -22
right_child=1 4 20 7 13 -7 -8 16 9 -11 15 14 -14 19 -16 -17 17 -19 -20 -21 21 -23
leaf_value=0.031947234225650399 -0.040076931873290721 -0.050433935619393036 -0.031363122530083179 -0.0083225323344348554 0.01003999510814476 0.027534450945914165 -0.019144187532930269 -0.0048009340191263704 0.029046014661953119 -0.012697360949921391 -0.0081392072874445272 0.02527794056630895 -0.031946387410075265 -0.0054402386912389645 -0.0083911029935827205 -0.040954543245554226 -0.038232301465221427 -0.028328299127821692 -0.034421479287434963 -0.044675725246771908 0.0076344246587479875 -0.014502611058201628
leaf_weight=125.878204299137 84.255732726305723 4.7483823597431183 0.72030499577522167 1.3694704864174121 0.21671033278107543 2.739914806559681 0.18452058732509513 1.4055342152714718 1.6414272822439673 1.5498090684413908 1.6013488918542851 1.7470643687993281 115.39347582682967 0.33192178979515929 2.0573120974004269 149.00979845970869 17.220893416553736 49.172108732163906 2.2490486092865467 245.94307387620211 0.3058604933321476 0.24010166525840759
leaf_count=11342 573 19 3 19 5 98 1 19 48 17 18 40 924 3 26 967 126 491 14 1258 24 1
internal_value=-0.0280134 -0.039036 0.0309265 -0.0360106 -0.0439812 -0.0220229 0.0317224 -0.0293179 -0.0111668 0.0105809 -0.0373343 -0.0346844 -0.0355603 -0.0445566 0.00911375 -0.0406616 -0.0309522 -0.0314264 -0.0284847 -0.0446451 -0.0273442 -0.00518461
internal_weight=809.982 682.653 127.329 428.673 253.98 7.4883 126.063 74.6083 6.80976 3.19124 354.065 203.454 199.649 246.492 3.80438 150.611 67.7985 66.393 3.61852 246.275 1.26627 0.545962
internal_count=16036 4665 11371 3282 1383 117 11343 734 98 65 2548 1563 1497 1266 66 985 636 617 33 1261 28 25
is_linear=0
shrinkage=0.03


Tree=27
num_leaves=11
num_cat=0
split_feature=33 21 19 1 12 19 16 21 36 21
split_gain=550.561 10.4073 13.5801 9.02939 5.57782 22.5758 6.58951 6.43606 2.63506 1.52051
threshold=0.34931400418281561 0.39666055142879492 0.6250625252723695 0.8641493320465089 0.58079293370246898 0.6250625252723695 0.2115111127495766 0.51382762193679821 1.0000000180025095e-35 0.49246238172054296
decision_type=2 2 2 2 2 2 2 2 2 2
left_child=3 2 -2 -1 -3 6 9 -8 -5 -6
right_child=1 4 -4 8 5 -7 7 -9 -10 -11
leaf_value=0.031868607140051061 -0.044279954570304099 -0.053157358745900767 0.024890864271438589 -0.042477765126354775 -0.014759444160840662 0.036627676391594879 0.0061202325506933448 -0.027122137371894405 0.012710233190715433 -0.036313696621026813
leaf_weight=121.80203381180763 216.644716007635 17.078352153301239 1.9893794115632761 1.1824310421943653 4.8273729793727389 3.2513183038681737 5.6639267951250067 38.545127455145121 0.6388317523524164 389.39528279006481
leaf_count=11288 1104 69 72 7 70 87 94 379 50 2792
internal_value=-0.0272076 -0.0378284 -0.0435401 0.0308261 -0.0350176 -0.0341977 -0.0348051 -0.0228221 -0.0254761 -0.0360878
internal_weight=801.019 677.395 218.634 123.623 458.761 441.683 438.432 44.2091 1.82126 394.223
internal_count=16012 4667 1176 11345 3491 3422 3335 473 57 2862
is_linear=0
shrinkage=0.03


Tree=28
num_leaves=12
num_cat=0
split_feature=33 21 19 1 12 19 16 21 36 21 5
split_gain=522.512 11.5844 13.2446 8.8145 6.22043 20.907 6.04097 6.69735 2.66169 2.2759 0.883164
threshold=0.34931400418281561 0.39666055142879492 0.6250625252723695 0.8641493320465089 0.58079293370246898 0.6250625252723695 0.2115111127495766 0.51358899474143993 1.0000000180025095e-35 0.49246238172054296 0.4286345392465592
decision_type=2 2 2 2 2 2 2 2 2 2 2
left_child=3 2 10 -1 -3 6 9 -8 -5 -6 -2
right_child=1 4 -4 8 5 -7 7 -9 -10 -11 -12
leaf_value=0.031795490716415131 -0.0084382120220712568 -0.0520606747227002 0.024753048772300563 -0.042096048482224639 -0.01012178768923739 0.0359585564197661 0.011131048556910255 -0.025908236867785987 0.01292274885824426 -0.035091195139843066 -0.04371198835881062
leaf_weight=118.74128701910377 1.1785405725240696 18.472721621394157 1.9860136937350024 1.1788241583853949 4.2990132290869942 3.1508247796446076 4.3787225075066081 38.777942538261414 0.65759210102260102 387.27814574725926 215.63767527788877
leaf_count=11314 20 75 73 6 67 85 78 384 52 2800 1088
internal_value=-0.0265975 -0.0368672 -0.04283 0.030737 -0.0339209 -0.0330388 -0.0336203 -0.0219832 -0.0247845 -0.0348435 -0.0435599
internal_weight=795.737 675.16 218.802 120.578 456.357 437.885 434.734 43.1567 1.83642 391.577 216.816
internal_count=16042 4670 1181 11372 3489 3414 3329 462 58 2867 1108
is_linear=0
shrinkage=0.03


Tree=29
num_leaves=11
num_cat=0
split_feature=33 21 19 1 12 19 16 21 4 21
split_gain=498.912 10.0594 13.0073 6.47287 5.03534 19.8296 6.08062 5.00978 2.13333 1.76214
threshold=0.34931400418281561 0.45600546896457678 0.6250625252723695 0.8641493320465089 0.58079293370246898 0.6250625252723695 0.2115111127495766 0.51303777098655712 0.66041603684425365 0.49246238172054296
decision_type=2 2 2 2 2 2 2 2 2 2
left_child=3 2 -2 -1 -3 6 9 -8 -5 -6
right_child=1 4 -4 8 5 -7 7 -9 -10 -11
leaf_value=0.031723581874598478 -0.042473483285847019 -0.050568139921986187 0.024769097585216154 0.012703047854104614 -0.011089452404946704 0.035287512095373494 0.021299522547296282 -0.02366300520101302 -0.037000153237389082 -0.034568012450567898
leaf_weight=115.23999576643109 214.04457258991897 17.131419330835342 2.014180961996316 0.63981402665376552 4.0776665471494189 3.076676119118928 1.6035488639026869 42.207529187202454 0.95938438549637794 389.63788969628513
leaf_count=11289 1119 70 75 51 58 84 36 430 6 2800
internal_value=-0.0261776 -0.0360983 -0.0417354 0.0308546 -0.0333523 -0.0325699 -0.0331265 -0.0215787 -0.019878 -0.0343536
internal_weight=790.633 673.793 216.059 116.839 457.735 440.603 437.527 43.8111 1.5992 393.716
internal_count=16018 4672 1194 11346 3478 3408 3324 466 57 2858
is_linear=0
shrinkage=0.03


Tree=30
num_leaves=10
num_cat=0
split_feature=33 21 19 1 12 19 16 21 21
split_gain=473.636 9.61987 12.2117 7.4927 5.57845 18.7551 4.65821 5.15068 1.42966
threshold=0.34931400418281561 0.39666055142879492 0.6250625252723695 0.86436662077903759 0.58079293370246898 0.6250625252723695 0.2115111127495766 0.51358899474143993 0.49246238172054296
decision_type=2 2 2 2 2 2 2 2 2
left_child=3 2 -2 -1 -3 6 8 -8 -6
right_child=1 4 -4 -5 5 -7 7 -9 -10
leaf_value=0.031656459235013999 -0.041504919044187141 -0.049758062775528356 0.024388043957473248 -0.027034356622057165 -0.012609040192307349 0.034687134471074556 0.0069922346748955717 -0.025420065888407548 -0.033572905914897408
leaf_weight=112.547711385414 210.85844283364713 18.483020603656769 1.9532917737960804 1.2748312251642335 4.5319605413824311 3.0281354859471312 4.5146528892219058 40.428566660732031 385.24428476393223
leaf_count=11331 1112 76 74 30 67 84 76 392 2785
internal_value=-0.0256032 -0.0352254 -0.0407889 0.0307694 -0.0325467 -0.0317083 -0.0322493 -0.0220828 -0.033362
internal_weight=782.865 669.042 212.812 113.823 456.231 437.748 434.719 44.9432 389.776
internal_count=16027 4666 1186 11361 3480 3404 3320 468 2852
is_linear=0
shrinkage=0.03


Tree=31
num_leaves=20
num_cat=0
split_feature=33 7 1 2 21 4 21 24 20 20 21 16 20 17 21 17 17 5 20
split_gain=445.109 10.7056 8.46829 3.43283 7.57644 2.31594 2.30492 1.1033 11.0318 1.70616 1.05997 1.88661 0.829401 10.3765 1.30415 0.740124 5.14715 0.147208 0.630467
threshold=0.34931400418281561 0.54670467972755443 0.8641493320465089 0.86481377482414257 0.51463457942008983 0.66041603684425365 0.39666055142879492 0.45221304893493658 0.92088419198989879 0.27735957503318792 0.51352065801620495 0.2184645161032677 0.27619011700153356 0.3860673606395722 0.49849155545234686 0.40990349650383001 0.40655782818794256 0.43476848304271704 0.28342001140117651
decision_type=2 2 2 2 2 2 2 2 2 2 2 2 2 2 2 2 2 2 2
left_child=2 3 -1 6 10 -4 -2 8 -3 -9 -5 -12 13 -8 -14 16 -6 18 -11
right_child=1 7 5 4 15 -7 12 9 -10 17 11 -13 14 -15 -16 -17 -18 -19 -20
leaf_value=0.031585689021611872 0.01306631556611723 0.025435533316462099 0.012300852948118194 0.025683088085947738 -0.026536584067138422 -0.039626399108946615 -0.030414100846954395 0.010725673235515255 -0.044547591288805061 -0.011152816935997015 -0.012713612536912021 0.023761798220515926 -0.013858623270329485 0.03056649208004299 -0.032829121498896593 -0.041035558593127672 0.021150762678235385 -0.042598989082102544 -0.037523728193850102
leaf_weight=108.7561032185331 0.52175377123057742 2.2798040043562642 0.60797906015068193 1.5860743466764677 22.524588815867908 1.2174033140763638 19.056117244064811 0.21765206381678481 4.9654114227741957 1.8581479229032982 2.5804410018026833 0.98325157351791848 5.3131825719028702 2.0558320023119441 362.381636377424 3.894016556441783 1.4972490593790997 119.50276409834623 114.77803983911872
leaf_count=11264 18 89 49 48 215 7 146 5 21 17 33 25 67 44 2639 19 30 594 665
internal_value=-0.0250755 -0.0343282 0.0304588 -0.031219 -0.0206733 -0.0240988 -0.0320594 -0.0395698 -0.0221124 -0.0400096 0.0110612 0.000351751 -0.0321533 -0.0233622 -0.0325933 -0.0267076 -0.0228378 -0.0401014 -0.037202
internal_weight=776.577 665.996 110.581 422.394 33.0656 1.82538 389.329 243.602 7.24522 236.357 5.14977 3.56369 388.807 21.1119 367.695 27.9159 24.0218 236.139 116.636
internal_count=15995 4675 11320 3284 370 56 2914 1391 110 1281 106 58 2896 190 2706 264 245 1276 682
is_linear=0
shrinkage=0.03


Tree=32
num_leaves=21
num_cat=0
split_feature=33 7 1 2 21 17 36 14 1 17 21 20 15 20 24 33 20 20 14 20
split_gain=422.503 11.3074 8.21923 2.68891 2.60218 3.00765 2.30699 2.04108 1.61291 3.70032 1.57433 9.6511 3.45365 3.11294 1.35837 11.1859 1.66553 1.34748 0.846105 0.101123
threshold=0.34931400418281561 0.54670467972755443 0.8641493320465089 0.86478653550148021 0.51377558708190929 0.40048356354236608 1.0000000180025095e-35 0.85258230566978466 0.86400845646858226 0.40990349650383001 0.50898957252502453 0.29145830869674688 0.20414541661739352 0.28544661402702337 0.45221304893493658 0.35141013562679296 0.27735957503318792 0.28513737022876745 0.85970354080200206 0.27866676449775701
decision_type=2 2 2 2 2 2 2 2 2 2 2 2 2 2 2 2 2 2 2 2
left_child=2 3 -1 10 5 7 -4 -5 -6 -10 11 12 -2 17 15 -3 -16 -12 -13 -18
right_child=1 14 6 4 8 -7 -8 -9 9 -11 13 18 -14 -15 16 -17 19 -19 -20 -21
leaf_value=0.031520200092594652 -0.03132144281955021 -0.044009413349502889 -0.038824006885741093 -6.4268020643693733e-05 -0.031555647911834753 0.024570258341043937 0.012499972886815407 -0.022212413032545057 -0.0078914672288537876 -0.039777274952154676 0.015555406635909966 -0.0062262222581293053 -0.01594878251252229 -0.034835152728638429 0.010668238865729446 0.025700310971013596 -0.0041481376530180455 -0.015214195124305456 0.022418539536084164 -0.039451478992454568
leaf_weight=105.92093012481928 163.68663513660431 4.9116266369819632 1.2260436527431 5.0549305919557872 34.698139231652021 0.87238341197371383 0.62507177516818035 13.513101130723951 11.914732713252304 3.9262519143521777 0.96310046687722151 0.74315178394317571 17.853358156979084 159.36663783341646 0.21764289215207 2.383242467418313 0.32200712338089843 2.9648152329027653 2.8113242965191603 233.76584017649293
leaf_count=11281 1216 20 7 86 286 21 51 128 152 20 18 8 179 1077 5 94 3 27 57 1274
internal_value=-0.0244882 -0.0334799 0.030376 -0.0302874 -0.0239661 -0.0135396 -0.0231876 -0.0164943 -0.0276362 -0.0176872 -0.031485 -0.0289333 -0.0299053 -0.0341836 -0.0388605 -0.0208824 -0.0393291 -0.00604407 0.0163775 -0.0394208
internal_weight=767.741 659.969 107.772 418.369 69.9795 19.4404 1.85112 18.568 50.5391 15.841 348.389 185.094 181.54 163.295 241.6 7.29487 234.305 3.92792 3.55448 234.088
internal_count=16010 4671 11339 3275 693 235 58 214 458 172 2582 1460 1395 1122 1396 114 1282 45 65 1277
is_linear=0
shrinkage=0.03


Tree=33
num_leaves=11
num_cat=0
split_feature=33 21 19 1 12 19 16 17 4 21
split_gain=403.853 10.2317 10.7878 8.1335 5.22871 17.5141 4.43204 3.73616 2.16792 1.24177
threshold=0.34931400418281561 0.39666055142879492 0.6250625252723695 0.8641493320465089 0.58079293370246898 0.6250625252723695 0.20257025212049487 0.39651566743850714 0.66041603684425365 0.50595948100090038
decision_type=2 2 2 2 2 2 2 2 2 2
left_child=3 2 -2 -1 -3 6 9 -8 -5 -6
right_child=1 4 -4 8 5 -7 7 -9 -10 -11
leaf_value=0.031456913636215229 -0.03936674879700125 -0.04716423468236243 0.023649063470779205 0.012142881488723192 -0.026718721109377837 0.034661554647778481 0.021938642093790289 -0.023091596448608104 -0.038083345651316207 -0.032477451363627063
leaf_weight=103.3186337063089 201.22094239294529 17.39336171746254 1.8597230501472939 0.59693337790667911 80.333390630781651 3.0296177323907605 0.95065466873347659 68.365460183471441 1.2328309547156093 280.6721251681447
leaf_count=11316 1096 73 74 49 662 85 28 655 7 1983
internal_value=-0.0240603 -0.0328348 -0.0386766 0.0302963 -0.030123 -0.029332 -0.0298619 -0.0221708 -0.0231971 -0.0312733
internal_weight=758.974 653.825 203.081 105.148 450.745 433.351 430.322 69.3161 1.82976 361.006
internal_count=16028 4656 1170 11372 3486 3413 3328 683 56 2645
is_linear=0
shrinkage=0.03


Tree=34
num_leaves=13
num_cat=0
split_feature=33 21 24 1 12 35 1 36 17 21 5 5
split_gain=380.366 11.4234 10.5364 7.91202 4.88819 17.2245 5.36374 2.23445 2.14651 2.09467 0.224737 0.192143
threshold=0.34931400418281561 0.45600546896457678 0.46167370676994329 0.8641493320465089 0.58079293370246898 0.28752413392066961 0.86400845646858226 1.0000000180025095e-35 0.40212480723857885 0.49246238172054296 0.4286345392465592 0.42861786484718328
decision_type=2 2 2 2 2 2 2 2 2 2 2 2
left_child=3 2 -2 -1 -3 6 9 -5 -8 -6 11 -4
right_child=1 4 10 7 5 -7 8 -9 -10 -11 -12 -13
leaf_value=0.031394054881141359 0.023562742477314803 -0.045887840626416806 -0.003272424220341073 -0.037876999392775966 -0.0057183303128494284 0.034624597832607178 0.015266410720229927 0.01249634272412754 -0.014386238155216296 -0.029606195302333365 -0.038843566274368573 -0.021841762108708359
leaf_weight=100.46346373669803 1.859397068619727 16.438195362687111 1.2507055532187217 1.2228127475827921 3.8719185981899491 3.0966706462204447 1.7604618035256852 0.62620732840150584 13.023572426289318 405.80995199084282 197.05398708954453 0.90633931756019581
leaf_count=11317 75 70 28 6 56 87 36 52 145 3077 1073 4
internal_value=-0.0233078 -0.0318303 -0.0379806 0.0302139 -0.028966 -0.0282099 -0.0287486 -0.0224189 -0.0101117 -0.0293949 -0.0386698 -0.0155218
internal_weight=747.384 645.071 201.07 102.312 444.001 427.563 424.466 1.84902 14.784 409.682 199.211 2.15704
internal_count=16026 4651 1180 11375 3471 3401 3314 58 181 3133 1105 32
is_linear=0
shrinkage=0.03


Tree=35
num_leaves=11
num_cat=0
split_feature=33 21 19 1 12 19 16 17 4 21
split_gain=366.308 10.788 10.0417 7.73345 4.96926 16.1654 5.4563 3.76572 2.09887 1.41014
threshold=0.34931400418281561 0.39666055142879492 0.6250625252723695 0.8641493320465089 0.58079293370246898 0.6250625252723695 0.20257025212049487 0.39651566743850714 0.66041603684425365 0.50898957252502453
decision_type=2 2 2 2 2 2 2 2 2 2
left_child=3 2 -2 -1 -3 6 9 -8 -5 -6
right_child=1 4 -4 8 5 -7 7 -9 -10 -11
leaf_value=0.03133298911271442 -0.038143330422019506 -0.045345712514984669 0.023242988584599011 0.012281652781292812 -0.027587440113470814 0.033984779208124587 0.02274285966395714 -0.020949324080010077 -0.036647758105640749 -0.032506559377569161
leaf_weight=97.580125176347792 199.61814377084374 17.211886465549469 1.8080240432173003 0.60939677245914836 190.2684899866581 2.9689684212207785 1.0413873977959145 65.455130938440561 1.2446197960525749 167.0994778200984
leaf_count=11304 1112 74 74 51 1485 84 31 638 7 1152
internal_value=-0.0232446 -0.0315012 -0.0374802 0.0301323 -0.0287109 -0.0279357 -0.0284484 -0.0199383 -0.0218969 -0.0299718
internal_weight=744.906 645.472 201.426 99.4341 444.045 426.833 423.864 66.4965 1.85402 357.368
internal_count=16012 4650 1186 11362 3464 3390 3306 669 58 2637
is_linear=0
shrinkage=0.03


Tree=36
num_leaves=25
num_cat=0
split_feature=33 7 1 2 21 16 21 16 20 14 21 36 24 20 20 17 17 20 16 5 16 20 1 17
split_gain=346.314 11.9014 7.65724 3.02987 2.85314 3.14724 2.07959 11.2611 3.87726 3.46713 3.2988 1.96576 1.23881 9.38836 1.5932 1.00299 0.80731 0.733574 0.713464 0.524236 0.455096 0.449633 0.0939089 0.0636521
threshold=0.34931400418281561 0.54670467972755443 0.8641493320465089 0.86477386951446544 0.51268002390861522 0.19609460979700091 0.50595948100090038 0.15889064222574237 0.28044192492961889 0.89924636483192455 0.50626456737518322 1.0000000180025095e-35 0.45221304893493658 0.92088419198989879 0.27735957503318792 0.39193485677242285 0.39708703756332403 0.29578079283237463 0.21594528853893283 0.43476848304271704 0.15486825257539752 0.28342001140117651 0.86366757750511181 0.39862313866615301
decision_type=2 2 2 2 2 2 2 2 2 2 2 2 2 2 2 2 2 2 2 2 2 2 2 2
left_child=2 3 -1 6 5 15 7 20 10 -9 -8 -4 13 -3 -14 -5 -7 23 -19 21 -2 -16 -10 -6
right_child=1 12 11 4 17 16 8 9 22 -11 -12 -13 14 -15 19 -17 -18 18 -20 -21 -22 -23 -24 -25
leaf_value=0.031273812602757869 -0.03210777286829148 0.024750950381421 -0.03595909188930884 -0.00061905164841334029 -0.0047229341372895207 0.018661677831731085 -0.018945510891010216 -0.0087537540410416986 -0.010827514440694042 0.026410681498194758 0.031205988228999438 0.011894051269412204 0.011062596156585641 -0.040259561830720776 -0.01012846811827285 -0.029960138614600094 -0.0030106478568669628 -0.02759457107849872 -0.019275652177680982 -0.039479402780629183 -0.018968593303499086 -0.034049298091141308 -0.030656258781808148 0.0035894286620430736
leaf_weight=94.984740431420505 46.415324244648218 2.2378115169703952 1.2496545426547516 1.5146916210651378 0.68683541193604358 2.8185812532901764 1.7244649529457086 19.159161012619737 1.6096687391400326 1.9052803702652443 1.0956024453043935 0.57975227572023857 0.21745742484927078 4.7811268121004105 1.7493404671549786 2.752834115177393 2.1928909942507744 34.620495315641165 33.003773123025894 112.11565168201923 8.1544337272644025 107.01195855811238 252.58280673995614 0.65956789441406727
leaf_count=11317 328 95 7 22 7 61 13 217 15 36 27 49 5 21 16 17 28 283 339 591 72 657 1801 13
internal_value=-0.0225938 -0.0306048 0.030054 -0.027378 -0.0213595 -0.0050923 -0.0287255 -0.0234332 -0.030186 -0.0045203 0.003607 -0.0219501 -0.0362722 -0.0190308 -0.0367314 -0.0216406 0.0102551 -0.0234439 -0.0238746 -0.0368281 -0.030521 -0.0337603 -0.0305736 -0.000856593
internal_weight=735.824 639.01 96.8141 410.896 78.2497 9.279 332.647 75.6342 257.013 21.0644 2.82007 1.82941 228.113 7.01894 221.094 4.26753 5.01147 68.9707 67.6243 220.877 54.5698 108.761 254.192 1.3464
internal_count=16037 4664 11373 3279 770 128 2509 653 1856 253 40 56 1385 116 1269 39 89 642 622 1264 400 673 1816 20
is_linear=0
shrinkage=0.03


Tree=37
num_leaves=10
num_cat=0
split_feature=33 7 1 12 19 1 21 21 20
split_gain=333.819 11.2711 4.75941 2.91823 17.2642 6.05446 2.4516 1.48074 0.601449
threshold=0.34931400418281561 0.56678166985511791 0.86436662077903759 0.58079293370246898 0.6250625252723695 0.86402490735054027 0.51653355360031139 0.39666055142879492 0.27735957503318792
decision_type=2 2 2 2 2 2 2 2 2
left_child=2 3 -1 -2 5 7 -7 -5 -3
right_child=1 8 -4 4 -6 6 -8 -9 -10
leaf_value=0.031216582108456542 -0.043195788873808996 0.0048006189228082729 -0.020094281937827679 -0.033291815796725584 0.033491714451305631 0.011928517165518937 -0.014877027005757345 -0.027332093530249499 -0.037659621270308655
leaf_weight=92.164453398436308 12.764634072780607 0.087174080312251045 1.018193214200436 69.95462585054338 3.3781551327556363 3.824439035728572 7.7842596545815468 389.18470237962902 148.09552646055818
leaf_count=11287 56 2 26 444 103 66 84 3045 857
internal_value=-0.0223375 -0.0301184 0.0304485 -0.0277682 -0.0272628 -0.0277689 -0.00580038 -0.0283105 -0.0376026
internal_weight=728.256 635.074 93.1826 486.891 474.126 470.748 11.6087 459.139 148.183
internal_count=15970 4657 11313 3798 3742 3639 150 3489 859
is_linear=0
shrinkage=0.03


Tree=38
num_leaves=13
num_cat=0
split_feature=33 7 1 12 19 16 21 2 4 24 33 5
split_gain=316.34 11.6805 7.3841 2.31548 11.7997 4.08356 6.13557 2.65437 1.94766 1.4365 9.2544 0.835458
threshold=0.34931400418281561 0.54670467972755443 0.8641493320465089 0.58079293370246898 0.6250625252723695 0.2115111127495766 0.51303777098655712 0.86482533812522899 0.66041603684425365 0.45221304893493658 0.35141013562679296 0.43476848304271704
decision_type=2 2 2 2 2 2 2 2 2 2 2 2
left_child=2 3 -1 -2 5 7 -7 -5 -4 10 -3 -11
right_child=1 9 8 4 -6 6 -8 -9 -10 11 -12 -13
leaf_value=0.031158581583762335 -0.041841952311199603 -0.039261718461812201 0.01207007486699321 -0.027517859030177429 0.032250356474864877 0.031195963261071886 -0.019066257779393928 0.0087175172800792906 -0.035134814946729646 -0.032433691893136496 0.024916557031446879 -0.038504176020434377
leaf_weight=89.729840124957263 10.149308010935782 4.66548928618431 0.59417741466313501 352.25226778537035 2.3237118478864422 1.4277715403586615 40.364673431962729 1.4037842750549305 1.2546488754451273 106.88880115374923 2.3083228152245283 110.33271255716681
leaf_count=11311 45 20 51 2694 60 38 409 26 7 681 99 596
internal_value=-0.021983 -0.0295333 0.0298885 -0.0263426 -0.0258432 -0.026265 -0.0166603 -0.0273499 -0.0210525 -0.0351962 -0.0175581 -0.0356794
internal_weight=723.696 632.117 91.5787 407.922 397.772 395.448 41.7924 353.656 1.84883 224.195 6.97381 217.222
internal_count=16037 4668 11369 3272 3227 3167 447 2720 58 1396 119 1277
is_linear=0
shrinkage=0.03


Tree=39
num_leaves=16
num_cat=0
split_feature=33 7 1 12 19 20 21 33 17 24 12 21 6 21 21
split_gain=298.318 12.6181 7.38356 2.33467 11.2894 4.72249 5.20525 1.76254 1.06978 0.921282 8.75652 0.996653 3.09235 1.82486 0.342695
threshold=0.34931400418281561 0.54670467972755443 0.8641493320465089 0.58079293370246898 0.6250625252723695 0.3031414151191712 0.51482632756233226 0.33016417920589453 0.40212480723857885 0.45221304893493658 0.58079293370246898 0.47178706526756292 0.44330842792987829 0.50514629483222973 0.5043172836303712
decision_type=2 2 2 2 2 2 2 2 2 2 2 2 2 2 2
left_child=2 3 -1 -2 5 8 -7 -4 -5 10 -3 -11 13 -13 -14
right_child=1 9 7 4 -6 6 -8 -9 -10 11 -12 12 14 -15 -16
leaf_value=0.03110153859834177 -0.0411395739852915 -0.038967602291814327 0.011377039184556233 -0.026453452772617004 0.031913518960654294 0.01286075693195392 -0.018783248486722633 -0.034500402802191972 -0.0043498725073361178 -0.036129680521935291 0.02429013172607699 0.022652099370503803 0.0034856292458578597 -0.015102547617063594 -0.034857688472969266
leaf_weight=86.82054560398683 9.7975682616233808 4.848243311047554 0.54217415954917569 360.8471401873976 2.3117682579904786 5.0555771477520492 23.05600406229496 1.2578992955386636 2.4165113009512416 187.97133234143257 2.1537373904138795 0.40685637667775409 0.037212986499070122 9.3053994029760343 15.75909862667322
leaf_count=11257 44 21 47 2804 60 104 232 7 28 1089 94 10 1 83 90
internal_value=-0.0214572 -0.0287736 0.0298034 -0.0254632 -0.0249698 -0.0253863 -0.0128461 -0.0215541 -0.0263188 -0.0346895 -0.0189062 -0.0351166 -0.0265702 -0.011554 -0.0345652
internal_weight=712.587 623.966 88.6206 403.485 393.687 391.375 28.1116 1.80007 363.264 220.482 7.00198 213.48 25.5086 9.71226 15.7963
internal_count=15971 4660 11311 3272 3228 3168 336 54 2832 1388 115 1273 184 93 91
is_linear=0
shrinkage=0.03


Tree=40
num_leaves=23
num_cat=0
split_feature=33 7 1 2 21 1 21 16 24 33 1 4 16 17 21 7 21 17 17 17 1 17
split_gain=283.904 12.8812 7.30006 2.74843 2.37697 5.70543 2.26531 3.47132 2.00058 7.55028 1.96006 1.66071 1.44992 1.23288 0.902331 2.90743 1.16833 0.816982 0.786866 4.23766 0.47132 0.22321
threshold=0.34931400418281561 0.54670467972755443 0.8641493320465089 0.86477386951446544 0.50929784774780285 0.86378690600395214 0.51268002390861522 0.19609460979700091 0.45221304893493658 0.35141013562679296 0.86387154459953319 0.66041603684425365 0.16004100441932681 0.39193485677242285 0.47178706526756292 0.65420290827751171 0.50514629483222973 0.39697292447090154 0.40990349650383001 0.40655782818794256 0.86375799775123607 0.39202193915843969
decision_type=2 2 2 2 2 2 2 2 2 2 2 2 2 2 2 2 2 2 2 2 2 2
left_child=2 3 -1 4 5 12 7 13 9 -3 -7 -4 -2 -5 -10 16 -16 -9 19 -8 -6 -22
right_child=1 8 11 6 20 10 18 17 14 -11 -12 -13 -14 -15 15 -17 -18 -19 -20 -21 21 -23
leaf_value=0.031048657974325933 -0.028946911619547506 -0.036378629487582026 0.011048254999504115 0.00083417980840840543 -0.00600352066095757 -0.01207635383040021 -0.020822853924263779 0.019437570713342095 -0.035596238205898613 0.024285252047827867 0.011408967766594068 -0.033918997686112194 -0.022168457639115662 -0.030207805282536818 0.013657674365641364 -0.034826584394775914 -0.015485497641079747 -0.0018032505320116922 -0.03525598147321795 0.021652850376104767 -0.010150732713654161 -0.029815384692905109
leaf_weight=84.738796475343406 75.034550350159407 3.652006432414054 0.5182530777528872 1.5171498656272868 1.34224497899413 18.63519544526935 61.26709033921361 2.7971941512078047 184.50186856091022 2.1816418971866369 2.9993296712636939 1.2594490256160495 94.229608975350857 3.1771208047866821 0.62017789110541599 14.789810966700314 10.259385187178848 2.5821773987263441 3.9873913452029219 1.4122508987784375 1.8313033618032921 130.52878829464316
leaf_count=11302 549 16 45 22 14 193 579 61 1085 97 44 7 786 19 11 84 91 33 21 28 17 918
internal_value=-0.0209117 -0.028046 0.0297339 -0.0247174 -0.0260071 -0.0234684 -0.018998 -0.00512327 -0.034088 -0.0134579 -0.00846023 -0.0215517 -0.0253257 -0.0217907 -0.0345942 -0.0263274 -0.0128144 0.0105573 -0.0209879 -0.0195408 -0.0294307 -0.0296215
internal_weight=703.863 617.346 86.5165 401.341 324.601 190.899 76.7404 10.0736 216.005 5.83365 21.6345 1.7777 169.264 4.69427 210.171 25.6694 10.8796 5.37937 66.6667 62.6793 133.702 132.36
internal_count=16022 4668 11354 3284 2521 1572 763 135 1384 113 237 52 1335 41 1271 186 102 94 628 607 949 935
is_linear=0
shrinkage=0.03


end of trees

feature_importances:
Fwd_IAT_Std=101
Fwd_IAT_Mean=55
Pkt_Len_Mean=46
Flow_IAT_Std=45
Fwd_Header_Len=44
Active_Max=32
Active_Min=31
Bwd_IAT_Min=31
Flow_IAT_Max=30
Fwd_Pkt_Len_Mean=27
Down_Up_Ratio=20
Idle_Max=12
Bwd_Header_Len=10
Bwd_IAT_Max=8
RST_Flag_Cnt=8
Flow_Byts_s=7
Flow_Duration=7
Active_Std=2
Bwd_IAT_Mean=1
Flow_Pkts_s=1
Pkt_Len_Var=1

parameters:
[boosting: gbdt]
[objective: binary]
[metric: binary_logloss]
[tree_learner: serial]
[device_type: cpu]
[data_sample_strategy: bagging]
[data: ]
[valid: ]
[num_iterations: 1200]
[learning_rate: 0.03]
[num_leaves: 31]
[num_threads: 0]
[seed: 42]
[deterministic: 0]
[force_col_wise: 0]
[force_row_wise: 0]
[histogram_pool_size: -1]
[max_depth: 6]
[min_data_in_leaf: 10]
[min_sum_hessian_in_leaf: 0.001]
[bagging_fraction: 0.95]
[pos_bagging_fraction: 1]
[neg_bagging_fraction: 1]
[bagging_freq: 1]
[bagging_seed: 400]
[bagging_by_query: 0]
[feature_fraction: 0.95]
[feature_fraction_bynode: 1]
[feature_fraction_seed: 30056]
[extra_trees: 0]
[extra_seed: 12879]
[early_stopping_round: 0]
[early_stopping_min_delta: 0]
[first_metric_only: 0]
[max_delta_step: 0]
[lambda_l1: 0]
[lambda_l2: 1]
[linear_lambda: 0]
[min_gain_to_split: 0]
[drop_rate: 0.1]
[max_drop: 50]
[skip_drop: 0.5]
[xgboost_dart_mode: 0]
[uniform_drop: 0]
[drop_seed: 17869]
[top_rate: 0.2]
[other_rate: 0.1]
[min_data_per_group: 100]
[max_cat_threshold: 32]
[cat_l2: 10]
[cat_smooth: 10]
[max_cat_to_onehot: 4]
[top_k: 20]
[monotone_constraints: ]
[monotone_constraints_method: basic]
[monotone_penalty: 0]
[feature_contri: ]
[forcedsplits_filename: ]
[refit_decay_rate: 0.9]
[cegb_tradeoff: 1]
[cegb_penalty_split: 0]
[cegb_penalty_feature_lazy: ]
[cegb_penalty_feature_coupled: ]
[path_smooth: 0]
[interaction_constraints: ]
[verbosity: -1]
[saved_feature_importance_type: 0]
[use_quantized_grad: 0]
[num_grad_quant_bins: 4]
[quant_train_renew_leaf: 0]
[stochastic_rounding: 1]
[linear_tree: 0]
[max_bin: 255]
[max_bin_by_feature: ]
[min_data_in_bin: 3]
[bin_construct_sample_cnt: 200000]
[data_random_seed: 175]
[is_enable_sparse: 1]
[enable_bundle: 1]
[use_missing: 1]
[zero_as_missing: 0]
[feature_pre_filter: 1]
[pre_partition: 0]
[two_round: 0]
[header: 0]
[label_column: ]
[weight_column: ]
[group_column: ]
[ignore_column: ]
[categorical_feature: ]
[forcedbins_filename: ]
[precise_float_parser: 0]
[parser_config_file: ]
[objective_seed: 16083]
[num_class: 1]
[is_unbalance: 0]
[scale_pos_weight: 0.174349]
[sigmoid: 1]
[boost_from_average: 1]
[reg_sqrt: 0]
[alpha: 0.9]
[fair_c: 1]
[poisson_max_delta_step: 0.7]
[tweedie_variance_power: 1.5]
[lambdarank_truncation_level: 30]
[lambdarank_norm: 1]
[label_gain: ]
[lambdarank_position_bias_regularization: 0]
[eval_at: ]
[multi_error_top_k: 1]
[auc_mu_weights: ]
[num_machines: 1]
[local_listen_port: 12400]
[time_out: 120]
[machine_list_filename: ]
[machines: ]
[gpu_platform_id: -1]
[gpu_device_id: -1]
[gpu_use_dp: 0]
[num_gpu: 1]

end of parameters

pandas_categorical:null
